digraph Tree {
node [shape=box] ;
0 [label="duration <= 455.5\ngini = 0.1887\nsamples = 2000\nvalue = [1789, 211]"] ;
1 [label="month <= 9.5\ngini = 0.1156\nsamples = 1721\nvalue = [1615, 106]"] ;
0 -> 1 [labeldistance=2.5, labelangle=45, headlabel="True"] ;
2 [label="age <= 61.5\ngini = 0.0954\nsamples = 1673\nvalue = [1589, 84]"] ;
1 -> 2 ;
3 [label="contact <= 0.5\ngini = 0.0861\nsamples = 1642\nvalue = [1568, 74]"] ;
2 -> 3 ;
4 [label="duration <= 184.5\ngini = 0.1268\nsamples = 1044\nvalue = [973, 71]"] ;
3 -> 4 ;
5 [label="age <= 25.5\ngini = 0.0641\nsamples = 633\nvalue = [612, 21]"] ;
4 -> 5 ;
6 [label="housing <= 0.5\ngini = 0.4444\nsamples = 15\nvalue = [10, 5]"] ;
5 -> 6 ;
7 [label="month <= 3.0\ngini = 0.4938\nsamples = 9\nvalue = [4, 5]"] ;
6 -> 7 ;
8 [label="gini = 0.0\nsamples = 3\nvalue = [0, 3]"] ;
7 -> 8 ;
9 [label="duration <= 134.5\ngini = 0.4444\nsamples = 6\nvalue = [4, 2]"] ;
7 -> 9 ;
10 [label="gini = 0.0\nsamples = 3\nvalue = [3, 0]"] ;
9 -> 10 ;
11 [label="balance <= 29.0\ngini = 0.4444\nsamples = 3\nvalue = [1, 2]"] ;
9 -> 11 ;
12 [label="gini = 0.0\nsamples = 1\nvalue = [1, 0]"] ;
11 -> 12 ;
13 [label="gini = 0.0\nsamples = 2\nvalue = [0, 2]"] ;
11 -> 13 ;
14 [label="gini = 0.0\nsamples = 6\nvalue = [6, 0]"] ;
6 -> 14 ;
15 [label="job <= 10.5\ngini = 0.0504\nsamples = 618\nvalue = [602, 16]"] ;
5 -> 15 ;
16 [label="day <= 1.5\ngini = 0.0475\nsamples = 616\nvalue = [601, 15]"] ;
15 -> 16 ;
17 [label="pdays <= 87.0\ngini = 0.4444\nsamples = 3\nvalue = [2, 1]"] ;
16 -> 17 ;
18 [label="gini = 0.0\nsamples = 2\nvalue = [2, 0]"] ;
17 -> 18 ;
19 [label="gini = 0.0\nsamples = 1\nvalue = [0, 1]"] ;
17 -> 19 ;
20 [label="month <= 3.5\ngini = 0.0446\nsamples = 613\nvalue = [599, 14]"] ;
16 -> 20 ;
21 [label="month <= 1.5\ngini = 0.0854\nsamples = 246\nvalue = [235, 11]"] ;
20 -> 21 ;
22 [label="previous <= 4.5\ngini = 0.0414\nsamples = 189\nvalue = [185, 4]"] ;
21 -> 22 ;
23 [label="job <= 9.5\ngini = 0.0316\nsamples = 187\nvalue = [184, 3]"] ;
22 -> 23 ;
24 [label="day <= 5.0\ngini = 0.0215\nsamples = 184\nvalue = [182, 2]"] ;
23 -> 24 ;
25 [label="previous <= 0.5\ngini = 0.2778\nsamples = 6\nvalue = [5, 1]"] ;
24 -> 25 ;
26 [label="gini = 0.0\nsamples = 5\nvalue = [5, 0]"] ;
25 -> 26 ;
27 [label="gini = 0.0\nsamples = 1\nvalue = [0, 1]"] ;
25 -> 27 ;
28 [label="balance <= 14.0\ngini = 0.0112\nsamples = 178\nvalue = [177, 1]"] ;
24 -> 28 ;
29 [label="balance <= 7.0\ngini = 0.0644\nsamples = 30\nvalue = [29, 1]"] ;
28 -> 29 ;
30 [label="gini = 0.0\nsamples = 29\nvalue = [29, 0]"] ;
29 -> 30 ;
31 [label="gini = 0.0\nsamples = 1\nvalue = [0, 1]"] ;
29 -> 31 ;
32 [label="gini = 0.0\nsamples = 148\nvalue = [148, 0]"] ;
28 -> 32 ;
33 [label="day <= 11.5\ngini = 0.4444\nsamples = 3\nvalue = [2, 1]"] ;
23 -> 33 ;
34 [label="gini = 0.0\nsamples = 1\nvalue = [0, 1]"] ;
33 -> 34 ;
35 [label="gini = 0.0\nsamples = 2\nvalue = [2, 0]"] ;
33 -> 35 ;
36 [label="campaign <= 1.5\ngini = 0.5\nsamples = 2\nvalue = [1, 1]"] ;
22 -> 36 ;
37 [label="gini = 0.0\nsamples = 1\nvalue = [0, 1]"] ;
36 -> 37 ;
38 [label="gini = 0.0\nsamples = 1\nvalue = [1, 0]"] ;
36 -> 38 ;
39 [label="day <= 9.5\ngini = 0.2155\nsamples = 57\nvalue = [50, 7]"] ;
21 -> 39 ;
40 [label="month <= 2.5\ngini = 0.0849\nsamples = 45\nvalue = [43, 2]"] ;
39 -> 40 ;
41 [label="gini = 0.0\nsamples = 1\nvalue = [0, 1]"] ;
40 -> 41 ;
42 [label="age <= 30.0\ngini = 0.0444\nsamples = 44\nvalue = [43, 1]"] ;
40 -> 42 ;
43 [label="balance <= 1257.5\ngini = 0.2449\nsamples = 7\nvalue = [6, 1]"] ;
42 -> 43 ;
44 [label="gini = 0.0\nsamples = 5\nvalue = [5, 0]"] ;
43 -> 44 ;
45 [label="balance <= 4129.0\ngini = 0.5\nsamples = 2\nvalue = [1, 1]"] ;
43 -> 45 ;
46 [label="gini = 0.0\nsamples = 1\nvalue = [0, 1]"] ;
45 -> 46 ;
47 [label="gini = 0.0\nsamples = 1\nvalue = [1, 0]"] ;
45 -> 47 ;
48 [label="gini = 0.0\nsamples = 37\nvalue = [37, 0]"] ;
42 -> 48 ;
49 [label="job <= 0.5\ngini = 0.4861\nsamples = 12\nvalue = [7, 5]"] ;
39 -> 49 ;
50 [label="gini = 0.0\nsamples = 3\nvalue = [0, 3]"] ;
49 -> 50 ;
51 [label="marital <= 0.5\ngini = 0.3457\nsamples = 9\nvalue = [7, 2]"] ;
49 -> 51 ;
52 [label="gini = 0.0\nsamples = 2\nvalue = [0, 2]"] ;
51 -> 52 ;
53 [label="gini = 0.0\nsamples = 7\nvalue = [7, 0]"] ;
51 -> 53 ;
54 [label="job <= 9.5\ngini = 0.0162\nsamples = 367\nvalue = [364, 3]"] ;
20 -> 54 ;
55 [label="day <= 2.5\ngini = 0.0111\nsamples = 359\nvalue = [357, 2]"] ;
54 -> 55 ;
56 [label="job <= 2.0\ngini = 0.18\nsamples = 10\nvalue = [9, 1]"] ;
55 -> 56 ;
57 [label="duration <= 110.0\ngini = 0.5\nsamples = 2\nvalue = [1, 1]"] ;
56 -> 57 ;
58 [label="gini = 0.0\nsamples = 1\nvalue = [0, 1]"] ;
57 -> 58 ;
59 [label="gini = 0.0\nsamples = 1\nvalue = [1, 0]"] ;
57 -> 59 ;
60 [label="gini = 0.0\nsamples = 8\nvalue = [8, 0]"] ;
56 -> 60 ;
61 [label="age <= 27.5\ngini = 0.0057\nsamples = 349\nvalue = [348, 1]"] ;
55 -> 61 ;
62 [label="balance <= 2662.0\ngini = 0.0868\nsamples = 22\nvalue = [21, 1]"] ;
61 -> 62 ;
63 [label="gini = 0.0\nsamples = 19\nvalue = [19, 0]"] ;
62 -> 63 ;
64 [label="balance <= 3241.5\ngini = 0.4444\nsamples = 3\nvalue = [2, 1]"] ;
62 -> 64 ;
65 [label="gini = 0.0\nsamples = 1\nvalue = [0, 1]"] ;
64 -> 65 ;
66 [label="gini = 0.0\nsamples = 2\nvalue = [2, 0]"] ;
64 -> 66 ;
67 [label="gini = 0.0\nsamples = 327\nvalue = [327, 0]"] ;
61 -> 67 ;
68 [label="age <= 30.5\ngini = 0.2188\nsamples = 8\nvalue = [7, 1]"] ;
54 -> 68 ;
69 [label="gini = 0.0\nsamples = 1\nvalue = [0, 1]"] ;
68 -> 69 ;
70 [label="gini = 0.0\nsamples = 7\nvalue = [7, 0]"] ;
68 -> 70 ;
71 [label="pdays <= 49.0\ngini = 0.5\nsamples = 2\nvalue = [1, 1]"] ;
15 -> 71 ;
72 [label="gini = 0.0\nsamples = 1\nvalue = [1, 0]"] ;
71 -> 72 ;
73 [label="gini = 0.0\nsamples = 1\nvalue = [0, 1]"] ;
71 -> 73 ;
74 [label="previous <= 1.5\ngini = 0.2137\nsamples = 411\nvalue = [361, 50]"] ;
4 -> 74 ;
75 [label="age <= 26.5\ngini = 0.1674\nsamples = 347\nvalue = [315, 32]"] ;
74 -> 75 ;
76 [label="balance <= 601.0\ngini = 0.4082\nsamples = 21\nvalue = [15, 6]"] ;
75 -> 76 ;
77 [label="gini = 0.0\nsamples = 9\nvalue = [9, 0]"] ;
76 -> 77 ;
78 [label="housing <= 0.5\ngini = 0.5\nsamples = 12\nvalue = [6, 6]"] ;
76 -> 78 ;
79 [label="month <= 5.0\ngini = 0.4444\nsamples = 9\nvalue = [3, 6]"] ;
78 -> 79 ;
80 [label="campaign <= 1.5\ngini = 0.48\nsamples = 5\nvalue = [3, 2]"] ;
79 -> 80 ;
81 [label="gini = 0.0\nsamples = 3\nvalue = [3, 0]"] ;
80 -> 81 ;
82 [label="gini = 0.0\nsamples = 2\nvalue = [0, 2]"] ;
80 -> 82 ;
83 [label="gini = 0.0\nsamples = 4\nvalue = [0, 4]"] ;
79 -> 83 ;
84 [label="gini = 0.0\nsamples = 3\nvalue = [3, 0]"] ;
78 -> 84 ;
85 [label="duration <= 186.5\ngini = 0.1468\nsamples = 326\nvalue = [300, 26]"] ;
75 -> 85 ;
86 [label="day <= 14.5\ngini = 0.48\nsamples = 5\nvalue = [3, 2]"] ;
85 -> 86 ;
87 [label="gini = 0.0\nsamples = 2\nvalue = [0, 2]"] ;
86 -> 87 ;
88 [label="gini = 0.0\nsamples = 3\nvalue = [3, 0]"] ;
86 -> 88 ;
89 [label="day <= 2.5\ngini = 0.1384\nsamples = 321\nvalue = [297, 24]"] ;
85 -> 89 ;
90 [label="month <= 4.0\ngini = 0.375\nsamples = 12\nvalue = [9, 3]"] ;
89 -> 90 ;
91 [label="balance <= 3189.5\ngini = 0.18\nsamples = 10\nvalue = [9, 1]"] ;
90 -> 91 ;
92 [label="gini = 0.0\nsamples = 9\nvalue = [9, 0]"] ;
91 -> 92 ;
93 [label="gini = 0.0\nsamples = 1\nvalue = [0, 1]"] ;
91 -> 93 ;
94 [label="gini = 0.0\nsamples = 2\nvalue = [0, 2]"] ;
90 -> 94 ;
95 [label="month <= 0.5\ngini = 0.1267\nsamples = 309\nvalue = [288, 21]"] ;
89 -> 95 ;
96 [label="day <= 21.0\ngini = 0.2841\nsamples = 35\nvalue = [29, 6]"] ;
95 -> 96 ;
97 [label="balance <= 88.5\ngini = 0.18\nsamples = 30\nvalue = [27, 3]"] ;
96 -> 97 ;
98 [label="day <= 16.0\ngini = 0.48\nsamples = 5\nvalue = [3, 2]"] ;
97 -> 98 ;
99 [label="gini = 0.0\nsamples = 2\nvalue = [2, 0]"] ;
98 -> 99 ;
100 [label="duration <= 236.5\ngini = 0.4444\nsamples = 3\nvalue = [1, 2]"] ;
98 -> 100 ;
101 [label="gini = 0.0\nsamples = 1\nvalue = [1, 0]"] ;
100 -> 101 ;
102 [label="gini = 0.0\nsamples = 2\nvalue = [0, 2]"] ;
100 -> 102 ;
103 [label="job <= 8.0\ngini = 0.0768\nsamples = 25\nvalue = [24, 1]"] ;
97 -> 103 ;
104 [label="gini = 0.0\nsamples = 21\nvalue = [21, 0]"] ;
103 -> 104 ;
105 [label="age <= 42.5\ngini = 0.375\nsamples = 4\nvalue = [3, 1]"] ;
103 -> 105 ;
106 [label="gini = 0.0\nsamples = 3\nvalue = [3, 0]"] ;
105 -> 106 ;
107 [label="gini = 0.0\nsamples = 1\nvalue = [0, 1]"] ;
105 -> 107 ;
108 [label="day <= 29.0\ngini = 0.48\nsamples = 5\nvalue = [2, 3]"] ;
96 -> 108 ;
109 [label="gini = 0.0\nsamples = 3\nvalue = [0, 3]"] ;
108 -> 109 ;
110 [label="gini = 0.0\nsamples = 2\nvalue = [2, 0]"] ;
108 -> 110 ;
111 [label="age <= 43.5\ngini = 0.1035\nsamples = 274\nvalue = [259, 15]"] ;
95 -> 111 ;
112 [label="month <= 6.5\ngini = 0.0696\nsamples = 194\nvalue = [187, 7]"] ;
111 -> 112 ;
113 [label="duration <= 331.0\ngini = 0.0165\nsamples = 120\nvalue = [119, 1]"] ;
112 -> 113 ;
114 [label="gini = 0.0\nsamples = 86\nvalue = [86, 0]"] ;
113 -> 114 ;
115 [label="duration <= 334.5\ngini = 0.0571\nsamples = 34\nvalue = [33, 1]"] ;
113 -> 115 ;
116 [label="campaign <= 3.0\ngini = 0.5\nsamples = 2\nvalue = [1, 1]"] ;
115 -> 116 ;
117 [label="gini = 0.0\nsamples = 1\nvalue = [0, 1]"] ;
116 -> 117 ;
118 [label="gini = 0.0\nsamples = 1\nvalue = [1, 0]"] ;
116 -> 118 ;
119 [label="gini = 0.0\nsamples = 32\nvalue = [32, 0]"] ;
115 -> 119 ;
120 [label="day <= 24.5\ngini = 0.149\nsamples = 74\nvalue = [68, 6]"] ;
112 -> 120 ;
121 [label="campaign <= 2.5\ngini = 0.1049\nsamples = 72\nvalue = [68, 4]"] ;
120 -> 121 ;
122 [label="balance <= -19.0\ngini = 0.0339\nsamples = 58\nvalue = [57, 1]"] ;
121 -> 122 ;
123 [label="balance <= -58.0\ngini = 0.2449\nsamples = 7\nvalue = [6, 1]"] ;
122 -> 123 ;
124 [label="gini = 0.0\nsamples = 6\nvalue = [6, 0]"] ;
123 -> 124 ;
125 [label="gini = 0.0\nsamples = 1\nvalue = [0, 1]"] ;
123 -> 125 ;
126 [label="gini = 0.0\nsamples = 51\nvalue = [51, 0]"] ;
122 -> 126 ;
127 [label="education <= 1.5\ngini = 0.3367\nsamples = 14\nvalue = [11, 3]"] ;
121 -> 127 ;
128 [label="day <= 5.0\ngini = 0.2604\nsamples = 13\nvalue = [11, 2]"] ;
127 -> 128 ;
129 [label="education <= 0.5\ngini = 0.5\nsamples = 2\nvalue = [1, 1]"] ;
128 -> 129 ;
130 [label="gini = 0.0\nsamples = 1\nvalue = [1, 0]"] ;
129 -> 130 ;
131 [label="gini = 0.0\nsamples = 1\nvalue = [0, 1]"] ;
129 -> 131 ;
132 [label="duration <= 234.5\ngini = 0.1653\nsamples = 11\nvalue = [10, 1]"] ;
128 -> 132 ;
133 [label="duration <= 216.0\ngini = 0.4444\nsamples = 3\nvalue = [2, 1]"] ;
132 -> 133 ;
134 [label="gini = 0.0\nsamples = 2\nvalue = [2, 0]"] ;
133 -> 134 ;
135 [label="gini = 0.0\nsamples = 1\nvalue = [0, 1]"] ;
133 -> 135 ;
136 [label="gini = 0.0\nsamples = 8\nvalue = [8, 0]"] ;
132 -> 136 ;
137 [label="gini = 0.0\nsamples = 1\nvalue = [0, 1]"] ;
127 -> 137 ;
138 [label="gini = 0.0\nsamples = 2\nvalue = [0, 2]"] ;
120 -> 138 ;
139 [label="campaign <= 2.5\ngini = 0.18\nsamples = 80\nvalue = [72, 8]"] ;
111 -> 139 ;
140 [label="month <= 2.5\ngini = 0.2604\nsamples = 52\nvalue = [44, 8]"] ;
139 -> 140 ;
141 [label="age <= 46.5\ngini = 0.4734\nsamples = 13\nvalue = [8, 5]"] ;
140 -> 141 ;
142 [label="gini = 0.0\nsamples = 3\nvalue = [0, 3]"] ;
141 -> 142 ;
143 [label="month <= 1.5\ngini = 0.32\nsamples = 10\nvalue = [8, 2]"] ;
141 -> 143 ;
144 [label="gini = 0.0\nsamples = 8\nvalue = [8, 0]"] ;
143 -> 144 ;
145 [label="gini = 0.0\nsamples = 2\nvalue = [0, 2]"] ;
143 -> 145 ;
146 [label="education <= 2.5\ngini = 0.142\nsamples = 39\nvalue = [36, 3]"] ;
140 -> 146 ;
147 [label="day <= 30.5\ngini = 0.0997\nsamples = 38\nvalue = [36, 2]"] ;
146 -> 147 ;
148 [label="duration <= 416.5\ngini = 0.0526\nsamples = 37\nvalue = [36, 1]"] ;
147 -> 148 ;
149 [label="gini = 0.0\nsamples = 34\nvalue = [34, 0]"] ;
148 -> 149 ;
150 [label="duration <= 438.5\ngini = 0.4444\nsamples = 3\nvalue = [2, 1]"] ;
148 -> 150 ;
151 [label="gini = 0.0\nsamples = 1\nvalue = [0, 1]"] ;
150 -> 151 ;
152 [label="gini = 0.0\nsamples = 2\nvalue = [2, 0]"] ;
150 -> 152 ;
153 [label="gini = 0.0\nsamples = 1\nvalue = [0, 1]"] ;
147 -> 153 ;
154 [label="gini = 0.0\nsamples = 1\nvalue = [0, 1]"] ;
146 -> 154 ;
155 [label="gini = 0.0\nsamples = 28\nvalue = [28, 0]"] ;
139 -> 155 ;
156 [label="poutcome <= 0.5\ngini = 0.4043\nsamples = 64\nvalue = [46, 18]"] ;
74 -> 156 ;
157 [label="job <= 9.5\ngini = 0.1653\nsamples = 33\nvalue = [30, 3]"] ;
156 -> 157 ;
158 [label="pdays <= 391.5\ngini = 0.1172\nsamples = 32\nvalue = [30, 2]"] ;
157 -> 158 ;
159 [label="pdays <= 89.0\ngini = 0.0644\nsamples = 30\nvalue = [29, 1]"] ;
158 -> 159 ;
160 [label="duration <= 226.5\ngini = 0.4444\nsamples = 3\nvalue = [2, 1]"] ;
159 -> 160 ;
161 [label="gini = 0.0\nsamples = 1\nvalue = [0, 1]"] ;
160 -> 161 ;
162 [label="gini = 0.0\nsamples = 2\nvalue = [2, 0]"] ;
160 -> 162 ;
163 [label="gini = 0.0\nsamples = 27\nvalue = [27, 0]"] ;
159 -> 163 ;
164 [label="month <= 3.5\ngini = 0.5\nsamples = 2\nvalue = [1, 1]"] ;
158 -> 164 ;
165 [label="gini = 0.0\nsamples = 1\nvalue = [0, 1]"] ;
164 -> 165 ;
166 [label="gini = 0.0\nsamples = 1\nvalue = [1, 0]"] ;
164 -> 166 ;
167 [label="gini = 0.0\nsamples = 1\nvalue = [0, 1]"] ;
157 -> 167 ;
168 [label="pdays <= 187.5\ngini = 0.4995\nsamples = 31\nvalue = [16, 15]"] ;
156 -> 168 ;
169 [label="month <= 8.5\ngini = 0.4444\nsamples = 18\nvalue = [6, 12]"] ;
168 -> 169 ;
170 [label="month <= 0.5\ngini = 0.2604\nsamples = 13\nvalue = [2, 11]"] ;
169 -> 170 ;
171 [label="gini = 0.0\nsamples = 1\nvalue = [1, 0]"] ;
170 -> 171 ;
172 [label="age <= 23.5\ngini = 0.1528\nsamples = 12\nvalue = [1, 11]"] ;
170 -> 172 ;
173 [label="gini = 0.0\nsamples = 1\nvalue = [1, 0]"] ;
172 -> 173 ;
174 [label="gini = 0.0\nsamples = 11\nvalue = [0, 11]"] ;
172 -> 174 ;
175 [label="campaign <= 2.5\ngini = 0.32\nsamples = 5\nvalue = [4, 1]"] ;
169 -> 175 ;
176 [label="gini = 0.0\nsamples = 4\nvalue = [4, 0]"] ;
175 -> 176 ;
177 [label="gini = 0.0\nsamples = 1\nvalue = [0, 1]"] ;
175 -> 177 ;
178 [label="month <= 2.0\ngini = 0.355\nsamples = 13\nvalue = [10, 3]"] ;
168 -> 178 ;
179 [label="gini = 0.0\nsamples = 3\nvalue = [0, 3]"] ;
178 -> 179 ;
180 [label="gini = 0.0\nsamples = 10\nvalue = [10, 0]"] ;
178 -> 180 ;
181 [label="age <= 28.5\ngini = 0.01\nsamples = 598\nvalue = [595, 3]"] ;
3 -> 181 ;
182 [label="day <= 9.5\ngini = 0.0701\nsamples = 55\nvalue = [53, 2]"] ;
181 -> 182 ;
183 [label="duration <= 333.5\ngini = 0.2076\nsamples = 17\nvalue = [15, 2]"] ;
182 -> 183 ;
184 [label="duration <= 27.0\ngini = 0.1172\nsamples = 16\nvalue = [15, 1]"] ;
183 -> 184 ;
185 [label="age <= 26.0\ngini = 0.5\nsamples = 2\nvalue = [1, 1]"] ;
184 -> 185 ;
186 [label="gini = 0.0\nsamples = 1\nvalue = [1, 0]"] ;
185 -> 186 ;
187 [label="gini = 0.0\nsamples = 1\nvalue = [0, 1]"] ;
185 -> 187 ;
188 [label="gini = 0.0\nsamples = 14\nvalue = [14, 0]"] ;
184 -> 188 ;
189 [label="gini = 0.0\nsamples = 1\nvalue = [0, 1]"] ;
183 -> 189 ;
190 [label="gini = 0.0\nsamples = 38\nvalue = [38, 0]"] ;
182 -> 190 ;
191 [label="month <= 1.5\ngini = 0.0037\nsamples = 543\nvalue = [542, 1]"] ;
181 -> 191 ;
192 [label="duration <= 289.5\ngini = 0.1172\nsamples = 16\nvalue = [15, 1]"] ;
191 -> 192 ;
193 [label="gini = 0.0\nsamples = 14\nvalue = [14, 0]"] ;
192 -> 193 ;
194 [label="age <= 48.5\ngini = 0.5\nsamples = 2\nvalue = [1, 1]"] ;
192 -> 194 ;
195 [label="gini = 0.0\nsamples = 1\nvalue = [0, 1]"] ;
194 -> 195 ;
196 [label="gini = 0.0\nsamples = 1\nvalue = [1, 0]"] ;
194 -> 196 ;
197 [label="gini = 0.0\nsamples = 527\nvalue = [527, 0]"] ;
191 -> 197 ;
198 [label="duration <= 261.5\ngini = 0.437\nsamples = 31\nvalue = [21, 10]"] ;
2 -> 198 ;
199 [label="job <= 2.0\ngini = 0.2355\nsamples = 22\nvalue = [19, 3]"] ;
198 -> 199 ;
200 [label="gini = 0.0\nsamples = 1\nvalue = [0, 1]"] ;
199 -> 200 ;
201 [label="education <= 2.5\ngini = 0.1723\nsamples = 21\nvalue = [19, 2]"] ;
199 -> 201 ;
202 [label="age <= 62.5\ngini = 0.0997\nsamples = 19\nvalue = [18, 1]"] ;
201 -> 202 ;
203 [label="pdays <= 183.0\ngini = 0.4444\nsamples = 3\nvalue = [2, 1]"] ;
202 -> 203 ;
204 [label="gini = 0.0\nsamples = 2\nvalue = [2, 0]"] ;
203 -> 204 ;
205 [label="gini = 0.0\nsamples = 1\nvalue = [0, 1]"] ;
203 -> 205 ;
206 [label="gini = 0.0\nsamples = 16\nvalue = [16, 0]"] ;
202 -> 206 ;
207 [label="previous <= 0.5\ngini = 0.5\nsamples = 2\nvalue = [1, 1]"] ;
201 -> 207 ;
208 [label="gini = 0.0\nsamples = 1\nvalue = [1, 0]"] ;
207 -> 208 ;
209 [label="gini = 0.0\nsamples = 1\nvalue = [0, 1]"] ;
207 -> 209 ;
210 [label="duration <= 437.0\ngini = 0.3457\nsamples = 9\nvalue = [2, 7]"] ;
198 -> 210 ;
211 [label="month <= 1.5\ngini = 0.2188\nsamples = 8\nvalue = [1, 7]"] ;
210 -> 211 ;
212 [label="balance <= 1472.5\ngini = 0.5\nsamples = 2\nvalue = [1, 1]"] ;
211 -> 212 ;
213 [label="gini = 0.0\nsamples = 1\nvalue = [1, 0]"] ;
212 -> 213 ;
214 [label="gini = 0.0\nsamples = 1\nvalue = [0, 1]"] ;
212 -> 214 ;
215 [label="gini = 0.0\nsamples = 6\nvalue = [0, 6]"] ;
211 -> 215 ;
216 [label="gini = 0.0\nsamples = 1\nvalue = [1, 0]"] ;
210 -> 216 ;
217 [label="duration <= 160.0\ngini = 0.4965\nsamples = 48\nvalue = [26, 22]"] ;
1 -> 217 ;
218 [label="pdays <= 105.5\ngini = 0.3324\nsamples = 19\nvalue = [15, 4]"] ;
217 -> 218 ;
219 [label="duration <= 87.0\ngini = 0.1327\nsamples = 14\nvalue = [13, 1]"] ;
218 -> 219 ;
220 [label="day <= 7.5\ngini = 0.5\nsamples = 2\nvalue = [1, 1]"] ;
219 -> 220 ;
221 [label="gini = 0.0\nsamples = 1\nvalue = [1, 0]"] ;
220 -> 221 ;
222 [label="gini = 0.0\nsamples = 1\nvalue = [0, 1]"] ;
220 -> 222 ;
223 [label="gini = 0.0\nsamples = 12\nvalue = [12, 0]"] ;
219 -> 223 ;
224 [label="pdays <= 167.5\ngini = 0.48\nsamples = 5\nvalue = [2, 3]"] ;
218 -> 224 ;
225 [label="gini = 0.0\nsamples = 3\nvalue = [0, 3]"] ;
224 -> 225 ;
226 [label="gini = 0.0\nsamples = 2\nvalue = [2, 0]"] ;
224 -> 226 ;
227 [label="day <= 22.5\ngini = 0.4709\nsamples = 29\nvalue = [11, 18]"] ;
217 -> 227 ;
228 [label="month <= 10.5\ngini = 0.4989\nsamples = 21\nvalue = [11, 10]"] ;
227 -> 228 ;
229 [label="duration <= 228.0\ngini = 0.355\nsamples = 13\nvalue = [10, 3]"] ;
228 -> 229 ;
230 [label="day <= 9.0\ngini = 0.4444\nsamples = 3\nvalue = [1, 2]"] ;
229 -> 230 ;
231 [label="gini = 0.0\nsamples = 1\nvalue = [1, 0]"] ;
230 -> 231 ;
232 [label="gini = 0.0\nsamples = 2\nvalue = [0, 2]"] ;
230 -> 232 ;
233 [label="balance <= 2591.5\ngini = 0.18\nsamples = 10\nvalue = [9, 1]"] ;
229 -> 233 ;
234 [label="gini = 0.0\nsamples = 8\nvalue = [8, 0]"] ;
233 -> 234 ;
235 [label="previous <= 1.0\ngini = 0.5\nsamples = 2\nvalue = [1, 1]"] ;
233 -> 235 ;
236 [label="gini = 0.0\nsamples = 1\nvalue = [0, 1]"] ;
235 -> 236 ;
237 [label="gini = 0.0\nsamples = 1\nvalue = [1, 0]"] ;
235 -> 237 ;
238 [label="duration <= 365.5\ngini = 0.2188\nsamples = 8\nvalue = [1, 7]"] ;
228 -> 238 ;
239 [label="gini = 0.0\nsamples = 7\nvalue = [0, 7]"] ;
238 -> 239 ;
240 [label="gini = 0.0\nsamples = 1\nvalue = [1, 0]"] ;
238 -> 240 ;
241 [label="gini = 0.0\nsamples = 8\nvalue = [0, 8]"] ;
227 -> 241 ;
242 [label="duration <= 960.5\ngini = 0.4694\nsamples = 279\nvalue = [174, 105]"] ;
0 -> 242 [labeldistance=2.5, labelangle=-45, headlabel="False"] ;
243 [label="contact <= 0.5\ngini = 0.4374\nsamples = 229\nvalue = [155, 74]"] ;
242 -> 243 ;
244 [label="age <= 62.0\ngini = 0.4805\nsamples = 152\nvalue = [91, 61]"] ;
243 -> 244 ;
245 [label="housing <= 0.5\ngini = 0.4736\nsamples = 148\nvalue = [91, 57]"] ;
244 -> 245 ;
246 [label="month <= 7.5\ngini = 0.4985\nsamples = 74\nvalue = [39, 35]"] ;
245 -> 246 ;
247 [label="duration <= 701.0\ngini = 0.4964\nsamples = 59\nvalue = [27, 32]"] ;
246 -> 247 ;
248 [label="loan <= 0.5\ngini = 0.4973\nsamples = 41\nvalue = [22, 19]"] ;
247 -> 248 ;
249 [label="job <= 4.5\ngini = 0.4983\nsamples = 34\nvalue = [16, 18]"] ;
248 -> 249 ;
250 [label="campaign <= 1.5\ngini = 0.4152\nsamples = 17\nvalue = [5, 12]"] ;
249 -> 250 ;
251 [label="day <= 18.0\ngini = 0.48\nsamples = 5\nvalue = [3, 2]"] ;
250 -> 251 ;
252 [label="gini = 0.0\nsamples = 2\nvalue = [2, 0]"] ;
251 -> 252 ;
253 [label="duration <= 469.0\ngini = 0.4444\nsamples = 3\nvalue = [1, 2]"] ;
251 -> 253 ;
254 [label="gini = 0.0\nsamples = 1\nvalue = [1, 0]"] ;
253 -> 254 ;
255 [label="gini = 0.0\nsamples = 2\nvalue = [0, 2]"] ;
253 -> 255 ;
256 [label="age <= 59.0\ngini = 0.2778\nsamples = 12\nvalue = [2, 10]"] ;
250 -> 256 ;
257 [label="age <= 31.0\ngini = 0.1653\nsamples = 11\nvalue = [1, 10]"] ;
256 -> 257 ;
258 [label="age <= 29.0\ngini = 0.375\nsamples = 4\nvalue = [1, 3]"] ;
257 -> 258 ;
259 [label="gini = 0.0\nsamples = 3\nvalue = [0, 3]"] ;
258 -> 259 ;
260 [label="gini = 0.0\nsamples = 1\nvalue = [1, 0]"] ;
258 -> 260 ;
261 [label="gini = 0.0\nsamples = 7\nvalue = [0, 7]"] ;
257 -> 261 ;
262 [label="gini = 0.0\nsamples = 1\nvalue = [1, 0]"] ;
256 -> 262 ;
263 [label="duration <= 519.5\ngini = 0.4567\nsamples = 17\nvalue = [11, 6]"] ;
249 -> 263 ;
264 [label="balance <= -262.5\ngini = 0.375\nsamples = 8\nvalue = [2, 6]"] ;
263 -> 264 ;
265 [label="gini = 0.0\nsamples = 1\nvalue = [1, 0]"] ;
264 -> 265 ;
266 [label="age <= 48.5\ngini = 0.2449\nsamples = 7\nvalue = [1, 6]"] ;
264 -> 266 ;
267 [label="gini = 0.0\nsamples = 5\nvalue = [0, 5]"] ;
266 -> 267 ;
268 [label="poutcome <= 2.5\ngini = 0.5\nsamples = 2\nvalue = [1, 1]"] ;
266 -> 268 ;
269 [label="gini = 0.0\nsamples = 1\nvalue = [0, 1]"] ;
268 -> 269 ;
270 [label="gini = 0.0\nsamples = 1\nvalue = [1, 0]"] ;
268 -> 270 ;
271 [label="gini = 0.0\nsamples = 9\nvalue = [9, 0]"] ;
263 -> 271 ;
272 [label="duration <= 604.5\ngini = 0.2449\nsamples = 7\nvalue = [6, 1]"] ;
248 -> 272 ;
273 [label="gini = 0.0\nsamples = 6\nvalue = [6, 0]"] ;
272 -> 273 ;
274 [label="gini = 0.0\nsamples = 1\nvalue = [0, 1]"] ;
272 -> 274 ;
275 [label="balance <= 649.5\ngini = 0.4012\nsamples = 18\nvalue = [5, 13]"] ;
247 -> 275 ;
276 [label="gini = 0.0\nsamples = 7\nvalue = [0, 7]"] ;
275 -> 276 ;
277 [label="day <= 12.5\ngini = 0.4959\nsamples = 11\nvalue = [5, 6]"] ;
275 -> 277 ;
278 [label="age <= 52.0\ngini = 0.2778\nsamples = 6\nvalue = [1, 5]"] ;
277 -> 278 ;
279 [label="gini = 0.0\nsamples = 5\nvalue = [0, 5]"] ;
278 -> 279 ;
280 [label="gini = 0.0\nsamples = 1\nvalue = [1, 0]"] ;
278 -> 280 ;
281 [label="loan <= 0.5\ngini = 0.32\nsamples = 5\nvalue = [4, 1]"] ;
277 -> 281 ;
282 [label="gini = 0.0\nsamples = 4\nvalue = [4, 0]"] ;
281 -> 282 ;
283 [label="gini = 0.0\nsamples = 1\nvalue = [0, 1]"] ;
281 -> 283 ;
284 [label="month <= 9.5\ngini = 0.32\nsamples = 15\nvalue = [12, 3]"] ;
246 -> 284 ;
285 [label="balance <= 4170.5\ngini = 0.1528\nsamples = 12\nvalue = [11, 1]"] ;
284 -> 285 ;
286 [label="gini = 0.0\nsamples = 10\nvalue = [10, 0]"] ;
285 -> 286 ;
287 [label="job <= 4.0\ngini = 0.5\nsamples = 2\nvalue = [1, 1]"] ;
285 -> 287 ;
288 [label="gini = 0.0\nsamples = 1\nvalue = [1, 0]"] ;
287 -> 288 ;
289 [label="gini = 0.0\nsamples = 1\nvalue = [0, 1]"] ;
287 -> 289 ;
290 [label="day <= 5.0\ngini = 0.4444\nsamples = 3\nvalue = [1, 2]"] ;
284 -> 290 ;
291 [label="gini = 0.0\nsamples = 1\nvalue = [1, 0]"] ;
290 -> 291 ;
292 [label="gini = 0.0\nsamples = 2\nvalue = [0, 2]"] ;
290 -> 292 ;
293 [label="balance <= -251.5\ngini = 0.4178\nsamples = 74\nvalue = [52, 22]"] ;
245 -> 293 ;
294 [label="gini = 0.0\nsamples = 2\nvalue = [0, 2]"] ;
293 -> 294 ;
295 [label="month <= 0.5\ngini = 0.4012\nsamples = 72\nvalue = [52, 20]"] ;
293 -> 295 ;
296 [label="gini = 0.0\nsamples = 8\nvalue = [8, 0]"] ;
295 -> 296 ;
297 [label="duration <= 593.0\ngini = 0.4297\nsamples = 64\nvalue = [44, 20]"] ;
295 -> 297 ;
298 [label="balance <= 252.5\ngini = 0.2975\nsamples = 33\nvalue = [27, 6]"] ;
297 -> 298 ;
299 [label="gini = 0.0\nsamples = 10\nvalue = [10, 0]"] ;
298 -> 299 ;
300 [label="balance <= 526.5\ngini = 0.3856\nsamples = 23\nvalue = [17, 6]"] ;
298 -> 300 ;
301 [label="age <= 33.5\ngini = 0.4938\nsamples = 9\nvalue = [4, 5]"] ;
300 -> 301 ;
302 [label="gini = 0.0\nsamples = 3\nvalue = [0, 3]"] ;
301 -> 302 ;
303 [label="day <= 21.5\ngini = 0.4444\nsamples = 6\nvalue = [4, 2]"] ;
301 -> 303 ;
304 [label="gini = 0.0\nsamples = 3\nvalue = [3, 0]"] ;
303 -> 304 ;
305 [label="age <= 49.0\ngini = 0.4444\nsamples = 3\nvalue = [1, 2]"] ;
303 -> 305 ;
306 [label="gini = 0.0\nsamples = 2\nvalue = [0, 2]"] ;
305 -> 306 ;
307 [label="gini = 0.0\nsamples = 1\nvalue = [1, 0]"] ;
305 -> 307 ;
308 [label="balance <= 2938.0\ngini = 0.1327\nsamples = 14\nvalue = [13, 1]"] ;
300 -> 308 ;
309 [label="gini = 0.0\nsamples = 12\nvalue = [12, 0]"] ;
308 -> 309 ;
310 [label="previous <= 2.0\ngini = 0.5\nsamples = 2\nvalue = [1, 1]"] ;
308 -> 310 ;
311 [label="gini = 0.0\nsamples = 1\nvalue = [1, 0]"] ;
310 -> 311 ;
312 [label="gini = 0.0\nsamples = 1\nvalue = [0, 1]"] ;
310 -> 312 ;
313 [label="balance <= 3475.0\ngini = 0.4953\nsamples = 31\nvalue = [17, 14]"] ;
297 -> 313 ;
314 [label="day <= 12.5\ngini = 0.477\nsamples = 28\nvalue = [17, 11]"] ;
313 -> 314 ;
315 [label="balance <= 2443.5\ngini = 0.4444\nsamples = 9\nvalue = [3, 6]"] ;
314 -> 315 ;
316 [label="marital <= 1.5\ngini = 0.2449\nsamples = 7\nvalue = [1, 6]"] ;
315 -> 316 ;
317 [label="gini = 0.0\nsamples = 5\nvalue = [0, 5]"] ;
316 -> 317 ;
318 [label="job <= 7.5\ngini = 0.5\nsamples = 2\nvalue = [1, 1]"] ;
316 -> 318 ;
319 [label="gini = 0.0\nsamples = 1\nvalue = [1, 0]"] ;
318 -> 319 ;
320 [label="gini = 0.0\nsamples = 1\nvalue = [0, 1]"] ;
318 -> 320 ;
321 [label="gini = 0.0\nsamples = 2\nvalue = [2, 0]"] ;
315 -> 321 ;
322 [label="duration <= 812.0\ngini = 0.3878\nsamples = 19\nvalue = [14, 5]"] ;
314 -> 322 ;
323 [label="duration <= 599.0\ngini = 0.1528\nsamples = 12\nvalue = [11, 1]"] ;
322 -> 323 ;
324 [label="gini = 0.0\nsamples = 1\nvalue = [0, 1]"] ;
323 -> 324 ;
325 [label="gini = 0.0\nsamples = 11\nvalue = [11, 0]"] ;
323 -> 325 ;
326 [label="day <= 20.0\ngini = 0.4898\nsamples = 7\nvalue = [3, 4]"] ;
322 -> 326 ;
327 [label="gini = 0.0\nsamples = 2\nvalue = [0, 2]"] ;
326 -> 327 ;
328 [label="day <= 23.5\ngini = 0.48\nsamples = 5\nvalue = [3, 2]"] ;
326 -> 328 ;
329 [label="gini = 0.0\nsamples = 2\nvalue = [2, 0]"] ;
328 -> 329 ;
330 [label="duration <= 946.5\ngini = 0.4444\nsamples = 3\nvalue = [1, 2]"] ;
328 -> 330 ;
331 [label="gini = 0.0\nsamples = 2\nvalue = [0, 2]"] ;
330 -> 331 ;
332 [label="gini = 0.0\nsamples = 1\nvalue = [1, 0]"] ;
330 -> 332 ;
333 [label="gini = 0.0\nsamples = 3\nvalue = [0, 3]"] ;
313 -> 333 ;
334 [label="gini = 0.0\nsamples = 4\nvalue = [0, 4]"] ;
244 -> 334 ;
335 [label="age <= 32.5\ngini = 0.2807\nsamples = 77\nvalue = [64, 13]"] ;
243 -> 335 ;
336 [label="gini = 0.0\nsamples = 19\nvalue = [19, 0]"] ;
335 -> 336 ;
337 [label="balance <= 2238.5\ngini = 0.3478\nsamples = 58\nvalue = [45, 13]"] ;
335 -> 337 ;
338 [label="balance <= 1895.0\ngini = 0.4055\nsamples = 46\nvalue = [33, 13]"] ;
337 -> 338 ;
339 [label="age <= 50.5\ngini = 0.375\nsamples = 44\nvalue = [33, 11]"] ;
338 -> 339 ;
340 [label="balance <= 1474.5\ngini = 0.4377\nsamples = 34\nvalue = [23, 11]"] ;
339 -> 340 ;
341 [label="balance <= 2.0\ngini = 0.477\nsamples = 28\nvalue = [17, 11]"] ;
340 -> 341 ;
342 [label="gini = 0.0\nsamples = 5\nvalue = [5, 0]"] ;
341 -> 342 ;
343 [label="duration <= 752.0\ngini = 0.4991\nsamples = 23\nvalue = [12, 11]"] ;
341 -> 343 ;
344 [label="month <= 7.0\ngini = 0.4654\nsamples = 19\nvalue = [12, 7]"] ;
343 -> 344 ;
345 [label="balance <= 842.5\ngini = 0.48\nsamples = 10\nvalue = [4, 6]"] ;
344 -> 345 ;
346 [label="default <= 0.5\ngini = 0.2778\nsamples = 6\nvalue = [1, 5]"] ;
345 -> 346 ;
347 [label="gini = 0.0\nsamples = 5\nvalue = [0, 5]"] ;
346 -> 347 ;
348 [label="gini = 0.0\nsamples = 1\nvalue = [1, 0]"] ;
346 -> 348 ;
349 [label="day <= 18.0\ngini = 0.375\nsamples = 4\nvalue = [3, 1]"] ;
345 -> 349 ;
350 [label="gini = 0.0\nsamples = 3\nvalue = [3, 0]"] ;
349 -> 350 ;
351 [label="gini = 0.0\nsamples = 1\nvalue = [0, 1]"] ;
349 -> 351 ;
352 [label="balance <= 59.0\ngini = 0.1975\nsamples = 9\nvalue = [8, 1]"] ;
344 -> 352 ;
353 [label="duration <= 588.0\ngini = 0.5\nsamples = 2\nvalue = [1, 1]"] ;
352 -> 353 ;
354 [label="gini = 0.0\nsamples = 1\nvalue = [1, 0]"] ;
353 -> 354 ;
355 [label="gini = 0.0\nsamples = 1\nvalue = [0, 1]"] ;
353 -> 355 ;
356 [label="gini = 0.0\nsamples = 7\nvalue = [7, 0]"] ;
352 -> 356 ;
357 [label="gini = 0.0\nsamples = 4\nvalue = [0, 4]"] ;
343 -> 357 ;
358 [label="gini = 0.0\nsamples = 6\nvalue = [6, 0]"] ;
340 -> 358 ;
359 [label="gini = 0.0\nsamples = 10\nvalue = [10, 0]"] ;
339 -> 359 ;
360 [label="gini = 0.0\nsamples = 2\nvalue = [0, 2]"] ;
338 -> 360 ;
361 [label="gini = 0.0\nsamples = 12\nvalue = [12, 0]"] ;
337 -> 361 ;
362 [label="balance <= 380.5\ngini = 0.4712\nsamples = 50\nvalue = [19, 31]"] ;
242 -> 362 ;
363 [label="campaign <= 4.5\ngini = 0.3084\nsamples = 21\nvalue = [4, 17]"] ;
362 -> 363 ;
364 [label="day <= 29.0\ngini = 0.1884\nsamples = 19\nvalue = [2, 17]"] ;
363 -> 364 ;
365 [label="duration <= 993.0\ngini = 0.1049\nsamples = 18\nvalue = [1, 17]"] ;
364 -> 365 ;
366 [label="month <= 6.5\ngini = 0.5\nsamples = 2\nvalue = [1, 1]"] ;
365 -> 366 ;
367 [label="gini = 0.0\nsamples = 1\nvalue = [0, 1]"] ;
366 -> 367 ;
368 [label="gini = 0.0\nsamples = 1\nvalue = [1, 0]"] ;
366 -> 368 ;
369 [label="gini = 0.0\nsamples = 16\nvalue = [0, 16]"] ;
365 -> 369 ;
370 [label="gini = 0.0\nsamples = 1\nvalue = [1, 0]"] ;
364 -> 370 ;
371 [label="gini = 0.0\nsamples = 2\nvalue = [2, 0]"] ;
363 -> 371 ;
372 [label="contact <= 0.5\ngini = 0.4994\nsamples = 29\nvalue = [15, 14]"] ;
362 -> 372 ;
373 [label="month <= 0.5\ngini = 0.4753\nsamples = 18\nvalue = [7, 11]"] ;
372 -> 373 ;
374 [label="gini = 0.0\nsamples = 3\nvalue = [3, 0]"] ;
373 -> 374 ;
375 [label="duration <= 1142.5\ngini = 0.3911\nsamples = 15\nvalue = [4, 11]"] ;
373 -> 375 ;
376 [label="gini = 0.0\nsamples = 7\nvalue = [0, 7]"] ;
375 -> 376 ;
377 [label="marital <= 1.5\ngini = 0.5\nsamples = 8\nvalue = [4, 4]"] ;
375 -> 377 ;
378 [label="day <= 19.5\ngini = 0.4444\nsamples = 6\nvalue = [2, 4]"] ;
377 -> 378 ;
379 [label="gini = 0.0\nsamples = 3\nvalue = [0, 3]"] ;
378 -> 379 ;
380 [label="poutcome <= 2.5\ngini = 0.4444\nsamples = 3\nvalue = [2, 1]"] ;
378 -> 380 ;
381 [label="gini = 0.0\nsamples = 1\nvalue = [0, 1]"] ;
380 -> 381 ;
382 [label="gini = 0.0\nsamples = 2\nvalue = [2, 0]"] ;
380 -> 382 ;
383 [label="gini = 0.0\nsamples = 2\nvalue = [2, 0]"] ;
377 -> 383 ;
384 [label="education <= 2.5\ngini = 0.3967\nsamples = 11\nvalue = [8, 3]"] ;
372 -> 384 ;
385 [label="duration <= 3034.0\ngini = 0.1975\nsamples = 9\nvalue = [8, 1]"] ;
384 -> 385 ;
386 [label="gini = 0.0\nsamples = 8\nvalue = [8, 0]"] ;
385 -> 386 ;
387 [label="gini = 0.0\nsamples = 1\nvalue = [0, 1]"] ;
385 -> 387 ;
388 [label="gini = 0.0\nsamples = 2\nvalue = [0, 2]"] ;
384 -> 388 ;
}